{
  "weights": {
    "net.0.weight": [
      [
        -0.07471705228090286,
        -0.11331620812416077,
        -0.07069297134876251
      ],
      [
        0.01976199448108673,
        -0.009497449733316898,
        0.0028902720659971237
      ],
      [
        0.06703328341245651,
        -0.12645329535007477,
        -0.11376525461673737
      ],
      [
        0.17092762887477875,
        -0.0984322726726532,
        0.10044348239898682
      ],
      [
        0.17962579429149628,
        -0.21641826629638672,
        0.022284602746367455
      ],
      [
        0.008569876663386822,
        -0.17779381573200226,
        -0.05355217680335045
      ],
      [
        -0.11633209884166718,
        -0.22652491927146912,
        -0.08058735728263855
      ],
      [
        0.24137373268604279,
        0.2489907443523407,
        -0.11404126137495041
      ],
      [
        -0.12071274220943451,
        -0.1633768230676651,
        0.10802041739225388
      ],
      [
        -0.22260257601737976,
        -0.11966099590063095,
        -0.0973234623670578
      ],
      [
        -0.029366202652454376,
        0.24059389531612396,
        -0.16699862480163574
      ],
      [
        -0.2196601927280426,
        -0.22653071582317352,
        -0.12621238827705383
      ],
      [
        0.1683420091867447,
        0.08155094087123871,
        0.0022930160630494356
      ],
      [
        0.20724648237228394,
        0.1871292144060135,
        0.053224287927150726
      ],
      [
        0.00575469434261322,
        -0.12050130218267441,
        -0.1746264100074768
      ],
      [
        0.038472238928079605,
        0.18456682562828064,
        0.10101481527090073
      ],
      [
        -0.04615039750933647,
        -0.031916916370391846,
        0.19991950690746307
      ],
      [
        -0.1926635056734085,
        0.20903418958187103,
        0.2071610391139984
      ],
      [
        0.19930286705493927,
        0.1499226689338684,
        0.013194998726248741
      ],
      [
        0.028706474229693413,
        -0.15658782422542572,
        -0.056834157556295395
      ],
      [
        -0.14097018539905548,
        0.022311054170131683,
        -0.08301306515932083
      ],
      [
        0.24866721034049988,
        0.13610850274562836,
        0.11403962969779968
      ],
      [
        -0.19632548093795776,
        -0.05621533840894699,
        0.1700468808412552
      ],
      [
        0.06762559711933136,
        -0.20659446716308594,
        -0.09499744325876236
      ],
      [
        0.13334982097148895,
        0.12439139932394028,
        0.04162174090743065
      ],
      [
        -0.07157275825738907,
        0.11161522567272186,
        0.06467073410749435
      ],
      [
        0.013902910053730011,
        0.05817057937383652,
        -0.08288192003965378
      ],
      [
        -0.1305420994758606,
        0.15587513148784637,
        -0.10393793135881424
      ],
      [
        -0.18439443409442902,
        -0.20198127627372742,
        0.13965696096420288
      ],
      [
        0.07391957938671112,
        0.07910031825304031,
        0.15308082103729248
      ],
      [
        -0.285839706659317,
        -0.2579474151134491,
        0.06055963784456253
      ],
      [
        0.2473546862602234,
        0.1591978669166565,
        0.03977898508310318
      ],
      [
        0.21973690390586853,
        -0.0817415714263916,
        0.17822842299938202
      ],
      [
        0.20587491989135742,
        -0.13586676120758057,
        0.023435991257429123
      ],
      [
        0.20414026081562042,
        0.2248096764087677,
        -0.011651766486465931
      ],
      [
        0.1879550963640213,
        -0.17289122939109802,
        0.06150130555033684
      ],
      [
        0.038191407918930054,
        0.060922808945178986,
        0.11352118104696274
      ],
      [
        0.08888636529445648,
        0.16210630536079407,
        0.15919287502765656
      ],
      [
        0.18047693371772766,
        0.19601982831954956,
        0.16311222314834595
      ],
      [
        0.24984174966812134,
        0.09482365101575851,
        -0.10771280527114868
      ],
      [
        0.10441070795059204,
        0.03293076530098915,
        0.15982002019882202
      ],
      [
        -0.07820437848567963,
        -0.009534396231174469,
        -0.18387190997600555
      ],
      [
        -0.1019589826464653,
        0.1545637845993042,
        -0.14689163863658905
      ],
      [
        -0.21118590235710144,
        -0.09247629344463348,
        0.006534116342663765
      ],
      [
        0.18220652639865875,
        -0.11049537360668182,
        0.055039361119270325
      ],
      [
        -0.17081418633460999,
        0.07030664384365082,
        0.06840068846940994
      ],
      [
        -0.009582579135894775,
        0.17490644752979279,
        0.1444493681192398
      ],
      [
        -0.1770986169576645,
        -0.24105773866176605,
        0.08694711327552795
      ],
      [
        -0.16338764131069183,
        0.03869512677192688,
        0.011190444231033325
      ],
      [
        0.10397906601428986,
        0.1353873908519745,
        -0.08739850670099258
      ],
      [
        -0.05642413720488548,
        -0.19575315713882446,
        0.13717253506183624
      ],
      [
        0.10032860934734344,
        0.22419793903827667,
        0.17669068276882172
      ],
      [
        0.14650340378284454,
        0.18609905242919922,
        0.03132293373346329
      ],
      [
        -0.17612655460834503,
        -0.104243703186512,
        -0.09320643544197083
      ],
      [
        -0.10772819072008133,
        -0.1226731687784195,
        -0.21118246018886566
      ],
      [
        0.00938493013381958,
        -0.16626401245594025,
        -0.16067299246788025
      ],
      [
        0.019042158499360085,
        -0.2478915899991989,
        0.028390614315867424
      ],
      [
        0.02077191323041916,
        0.1461959332227707,
        0.1559886783361435
      ],
      [
        0.04984349384903908,
        -0.22732658684253693,
        -0.03726009652018547
      ],
      [
        0.07947168499231339,
        -0.18631388247013092,
        -0.20023836195468903
      ],
      [
        -0.24463000893592834,
        -0.21227224171161652,
        0.08332116901874542
      ],
      [
        -0.017220819368958473,
        0.133038729429245,
        -0.08964507281780243
      ],
      [
        -0.03457894176244736,
        -0.012335020117461681,
        0.16541868448257446
      ],
      [
        0.04662817344069481,
        -0.15662524104118347,
        0.15512070059776306
      ],
      [
        0.05150676518678665,
        0.2327154278755188,
        0.013076746836304665
      ],
      [
        -0.2204955816268921,
        -0.011768455617129803,
        -0.11721105873584747
      ],
      [
        -0.1767294853925705,
        -0.00715451268479228,
        0.06677469611167908
      ],
      [
        -0.10943450033664703,
        -0.05928163602948189,
        -0.08799237012863159
      ],
      [
        0.2521510720252991,
        0.14379559457302094,
        -0.039803531020879745
      ],
      [
        -0.10395671427249908,
        -0.11317068338394165,
        -0.01832067407667637
      ],
      [
        0.10435989499092102,
        -0.029875431209802628,
        -0.08884333074092865
      ],
      [
        -0.21988928318023682,
        0.13103115558624268,
        -0.07771844416856766
      ],
      [
        0.25849732756614685,
        0.048654135316610336,
        -0.027527712285518646
      ],
      [
        -0.08488214761018753,
        -0.01139004621654749,
        -0.012401284649968147
      ],
      [
        0.018024945631623268,
        -0.13766564428806305,
        0.1694197803735733
      ],
      [
        0.04970411956310272,
        -0.034135520458221436,
        -0.0922255888581276
      ],
      [
        0.03898901864886284,
        -0.02524932287633419,
        0.012835226953029633
      ],
      [
        -0.2620004415512085,
        0.015301055274903774,
        0.0017976051894947886
      ],
      [
        0.1091025322675705,
        -0.1409706175327301,
        0.09073171019554138
      ],
      [
        0.1624278873205185,
        0.04693999141454697,
        0.15871916711330414
      ],
      [
        -0.30758634209632874,
        0.036215268075466156,
        -0.07867669314146042
      ],
      [
        0.12199809402227402,
        0.20307810604572296,
        0.04692256450653076
      ],
      [
        -0.05701685696840286,
        0.040673524141311646,
        0.22615373134613037
      ],
      [
        -0.15788717567920685,
        0.19434483349323273,
        0.021922215819358826
      ],
      [
        0.1676499843597412,
        0.0478813573718071,
        -0.022489678114652634
      ],
      [
        -0.05446358025074005,
        -0.06784956157207489,
        -0.16990399360656738
      ],
      [
        0.2503177523612976,
        0.2038499116897583,
        -0.18623660504817963
      ],
      [
        0.11508811265230179,
        -0.15049892663955688,
        -0.07847916334867477
      ],
      [
        0.1860596239566803,
        -0.01667768694460392,
        0.13323113322257996
      ],
      [
        0.1566893607378006,
        0.053121257573366165,
        -0.18416130542755127
      ],
      [
        0.16564878821372986,
        -0.0738518089056015,
        -0.09468649327754974
      ],
      [
        -0.038009271025657654,
        0.20394477248191833,
        -0.03666740283370018
      ],
      [
        0.10208934545516968,
        0.03481978550553322,
        -0.05100679770112038
      ],
      [
        0.06295151263475418,
        0.19976963102817535,
        0.16115565598011017
      ],
      [
        -0.014271494001150131,
        0.005944153759628534,
        0.10909023880958557
      ],
      [
        -0.12861409783363342,
        -0.09114646911621094,
        0.09846964478492737
      ],
      [
        0.26337191462516785,
        0.1392437368631363,
        -0.003024003468453884
      ],
      [
        -0.18814198672771454,
        -0.021241867914795876,
        -0.14803828299045563
      ],
      [
        -0.08691579848527908,
        -0.0489259734749794,
        0.07663469016551971
      ],
      [
        0.2697596848011017,
        0.10048859566450119,
        0.05563754215836525
      ],
      [
        -0.10496829450130463,
        -0.16498462855815887,
        -0.19198881089687347
      ],
      [
        0.03361750766634941,
        0.017985772341489792,
        0.1750067174434662
      ],
      [
        0.19850146770477295,
        0.08285326510667801,
        -0.039240479469299316
      ],
      [
        0.09629038721323013,
        -0.2376144528388977,
        -0.019903771579265594
      ],
      [
        0.025646118447184563,
        -0.25920096039772034,
        0.1472589522600174
      ],
      [
        -0.024247581139206886,
        0.2133629471063614,
        -0.016506429761648178
      ],
      [
        -0.07554516196250916,
        0.1569271683692932,
        -0.12421558797359467
      ],
      [
        -0.20157593488693237,
        -0.11460021138191223,
        0.10081920027732849
      ],
      [
        0.11357522755861282,
        0.21061080694198608,
        -0.06459005177021027
      ],
      [
        -0.03603434935212135,
        -0.10605789721012115,
        0.19910255074501038
      ],
      [
        -0.05469397082924843,
        -0.2700551450252533,
        0.03661085665225983
      ],
      [
        -0.20436140894889832,
        -0.02549770101904869,
        0.03612615913152695
      ],
      [
        -0.10914450883865356,
        -0.19398711621761322,
        -0.034191861748695374
      ],
      [
        -0.1013236939907074,
        0.25394585728645325,
        -0.04609842225909233
      ],
      [
        0.03713231161236763,
        0.24371452629566193,
        -0.003018308198079467
      ],
      [
        -0.1219877079129219,
        -0.33633723855018616,
        0.09690374881029129
      ],
      [
        0.09151282161474228,
        -0.268686443567276,
        0.19714346528053284
      ],
      [
        0.20845608413219452,
        0.17342627048492432,
        0.010224970057606697
      ],
      [
        -0.021185852587223053,
        0.19613902270793915,
        0.1235685870051384
      ],
      [
        -0.17221909761428833,
        -0.16834740340709686,
        0.1810671091079712
      ],
      [
        -0.12622420489788055,
        -0.08697905391454697,
        -0.1700064241886139
      ],
      [
        0.026363931596279144,
        -0.08175048977136612,
        0.16805647313594818
      ],
      [
        -0.11831668764352798,
        0.04071163013577461,
        -0.14282634854316711
      ],
      [
        -0.21034878492355347,
        -0.2613978385925293,
        -0.017359528690576553
      ],
      [
        0.016993170604109764,
        0.056731145828962326,
        0.20535802841186523
      ],
      [
        0.08490832895040512,
        -0.01836502179503441,
        0.1203066036105156
      ],
      [
        -0.1673908680677414,
        0.2370661497116089,
        -0.17440265417099
      ],
      [
        0.1144702285528183,
        -0.1388591080904007,
        0.15614640712738037
      ]
    ],
    "net.0.bias": [
      0.034386783838272095,
      0.07815234363079071,
      -0.04002353176474571,
      0.0423644594848156,
      0.06232175976037979,
      0.05138610675930977,
      -0.007082556840032339,
      -0.0626082718372345,
      0.05382194742560387,
      0.06636267155408859,
      -0.030954064801335335,
      0.06146832928061485,
      -0.06508085131645203,
      -0.06629925966262817,
      -0.02262878231704235,
      0.032422229647636414,
      0.05472462251782417,
      0.034673258662223816,
      -0.05329049378633499,
      0.08005327731370926,
      0.045707423239946365,
      -0.07444918900728226,
      0.008937317878007889,
      0.06658957898616791,
      -0.0075012980960309505,
      0.04444944113492966,
      -0.04848172515630722,
      -0.05287020280957222,
      0.07246681302785873,
      0.0761898085474968,
      0.047033194452524185,
      -0.0435497872531414,
      0.00862829014658928,
      -0.08600141108036041,
      -0.06051478907465935,
      -0.04159603640437126,
      0.038407012820243835,
      -0.014196500182151794,
      0.07910530269145966,
      -0.041601672768592834,
      0.0547700971364975,
      0.02947344072163105,
      0.030593955889344215,
      0.05481995269656181,
      -0.05954662710428238,
      0.08289947360754013,
      0.02189602330327034,
      0.06966850906610489,
      -0.014478825964033604,
      -0.07787823677062988,
      0.05255110189318657,
      0.015014863573014736,
      -0.05475141480565071,
      -0.003640057286247611,
      0.04654921963810921,
      -0.03414610028266907,
      0.08318853378295898,
      0.06807105988264084,
      0.08377184718847275,
      -0.022504588589072227,
      0.07748141139745712,
      -0.04672989994287491,
      0.054876115173101425,
      -0.024486247450113297,
      -0.021131252869963646,
      0.057451169937849045,
      0.06180499866604805,
      -0.03574753925204277,
      -0.020658748224377632,
      0.07054764777421951,
      0.027453506365418434,
      0.019507845863699913,
      -0.05529681220650673,
      -0.050572142004966736,
      0.05518627539277077,
      -0.021293533965945244,
      -0.07674404978752136,
      0.06910756230354309,
      0.0687691792845726,
      0.03684764727950096,
      0.027222290635108948,
      -0.025416912510991096,
      0.03103918582201004,
      0.10618743300437927,
      -0.07147551327943802,
      -0.03318607062101364,
      -0.029948273673653603,
      -0.0314263254404068,
      0.03848566114902496,
      -0.05673108249902725,
      -0.08421438187360764,
      -0.06680498272180557,
      -0.07951260358095169,
      0.013265261426568031,
      0.049499865621328354,
      0.06736442446708679,
      -0.058962948620319366,
      -0.07657928019762039,
      -0.03565184026956558,
      -0.044563837349414825,
      -0.04408182203769684,
      0.06787091493606567,
      -0.04121069610118866,
      0.0852588564157486,
      0.07293038070201874,
      -0.07567346096038818,
      -0.083907850086689,
      0.07227417826652527,
      -0.07249737530946732,
      0.04978552088141441,
      0.0700947567820549,
      0.07473121583461761,
      0.00017462120740674436,
      -0.00974639318883419,
      -0.06196822226047516,
      0.05178568884730339,
      0.051477935165166855,
      -0.02806207910180092,
      0.004800200928002596,
      0.05390306934714317,
      0.011182873509824276,
      0.04512167349457741,
      0.057993561029434204,
      0.050189413130283356,
      0.051933690905570984,
      0.03629720211029053,
      -0.060103822499513626,
      0.057213082909584045
    ],
    "net.2.weight": [
      [
        -0.04299939423799515,
        0.12751947343349457,
        0.014950484037399292,
        -0.028595859184861183,
        -0.002414349466562271,
        -0.057086031883955,
        -0.036279480904340744,
        0.17536388337612152,
        0.012519901618361473,
        -0.11953742057085037,
        -0.031573325395584106,
        -0.018802491948008537,
        0.2591041326522827,
        0.2100154608488083,
        -0.13655591011047363,
        0.060602616518735886,
        0.02298196218907833,
        0.0023648603819310665,
        0.18713103234767914,
        -0.26833614706993103,
        0.030952347442507744,
        0.04642057418823242,
        -0.05037764832377434,
        -0.09163709729909897,
        -0.04938098043203354,
        0.0946916863322258,
        0.036280713975429535,
        -0.011145097203552723,
        0.0009476960403844714,
        0.1783307045698166,
        -0.19858263432979584,
        0.07035847753286362,
        -0.011881009675562382,
        -0.03728221356868744,
        -0.026723602786660194,
        -0.05973340570926666,
        -0.0422445684671402,
        0.0388735868036747,
        0.0497296042740345,
        0.2337500900030136,
        0.027343925088644028,
        0.053548507392406464,
        -0.11390261352062225,
        -0.1823849380016327,
        0.032811086624860764,
        -0.0052127959206700325,
        0.1531723439693451,
        -0.033643145114183426,
        -0.061375200748443604,
        0.1816009283065796,
        0.015650704503059387,
        0.18986456096172333,
        0.1792515367269516,
        -0.18360018730163574,
        0.05055825412273407,
        0.009150980040431023,
        -0.035607531666755676,
        0.09021341055631638,
        -0.10578811913728714,
        -0.017363861203193665,
        -0.030773000791668892,
        0.15674732625484467,
        0.1355092078447342,
        -0.1818697601556778,
        0.17715443670749664,
        0.04506035894155502,
        -0.19511739909648895,
        -0.19650043547153473,
        0.21672256290912628,
        -0.10490654408931732,
        0.1588495969772339,
        0.030451755970716476,
        0.25799551606178284,
        -0.21036401391029358,
        -0.08019716292619705,
        -0.15069268643856049,
        0.012012680992484093,
        -0.040271636098623276,
        -0.12015847116708755,
        0.15240420401096344,
        -0.24143795669078827,
        0.20203401148319244,
        -0.12095937132835388,
        -0.06770428270101547,
        0.06898027658462524,
        0.005756373982876539,
        -0.01814468763768673,
        0.04273844510316849,
        -0.08988030254840851,
        0.04790648818016052,
        -0.017698954790830612,
        0.10674212127923965,
        -0.016409918665885925,
        0.20744840800762177,
        0.14644815027713776,
        -0.2635635733604431,
        0.12815184891223907,
        -0.17197076976299286,
        -0.2265458106994629,
        0.06658376753330231,
        0.04073745012283325,
        -0.12030664831399918,
        0.29402124881744385,
        -0.0335727296769619,
        -0.022443018853664398,
        0.25263357162475586,
        0.03899029269814491,
        -0.05485796555876732,
        0.21212027966976166,
        -0.17270585894584656,
        -0.1101808175444603,
        -0.16213811933994293,
        -0.23739728331565857,
        0.1874469667673111,
        0.11886115372180939,
        -0.1399451196193695,
        -0.11822360754013062,
        0.21400494873523712,
        0.06552146375179291,
        -0.16440895199775696,
        -0.124237060546875,
        0.037626780569553375,
        -0.16465076804161072,
        -0.049624573439359665,
        -0.10201191157102585,
        -0.06008409336209297,
        0.030796237289905548,
        -0.08064241707324982
      ],
      [
        -0.008921906352043152,
        -0.14623180031776428,
        -0.057224925607442856,
        0.07031820714473724,
        0.023414697498083115,
        -0.13309037685394287,
        0.015364625491201878,
        -0.03847173973917961,
        -0.11639944463968277,
        0.022804809734225273,
        0.02271105907857418,
        -0.19331324100494385,
        0.10451634228229523,
        0.04675279185175896,
        0.04030358046293259,
        -0.005158464889973402,
        -0.1198047399520874,
        0.026748791337013245,
        0.1890130639076233,
        -0.21784289181232452,
        -0.011779073625802994,
        0.0946267694234848,
        -0.007874280214309692,
        -0.09911990165710449,
        0.03499186038970947,
        -0.151009663939476,
        0.1314891278743744,
        -0.08285564929246902,
        -0.20309850573539734,
        -0.07984770089387894,
        -0.030269868671894073,
        0.0337928906083107,
        -0.0640457347035408,
        0.22750172019004822,
        -0.007026370614767075,
        -0.022952137514948845,
        0.08589400351047516,
        -0.022316353395581245,
        -0.0807090625166893,
        0.03905408829450607,
        -0.0654844343662262,
        -0.027172688394784927,
        -0.08211465179920197,
        -0.11260436475276947,
        0.1376674324274063,
        0.042090192437171936,
        0.11456133425235748,
        -0.16700823605060577,
        0.03079378791153431,
        -0.03924166038632393,
        -0.17923103272914886,
        -0.07329939305782318,
        0.007994094863533974,
        -0.18102510273456573,
        0.04335475340485573,
        0.11181890219449997,
        -0.25280189514160156,
        -0.13031435012817383,
        -0.21630045771598816,
        0.10743517428636551,
        -0.04658675193786621,
        0.04026554152369499,
        0.12280180305242538,
        0.11713635176420212,
        0.12937183678150177,
        -0.14488184452056885,
        -0.13990020751953125,
        -0.04470440000295639,
        0.03754166141152382,
        -0.07719260454177856,
        0.07118289172649384,
        -0.12639859318733215,
        -0.0496370829641819,
        -0.13695351779460907,
        0.012874696403741837,
        -0.09526270627975464,
        0.1751268357038498,
        -0.058432113379240036,
        0.031232059001922607,
        -0.03764825314283371,
        0.02602129988372326,
        0.15911677479743958,
        0.06306622177362442,
        -0.024264497682452202,
        0.19841675460338593,
        0.006234221160411835,
        0.10863576829433441,
        0.06265188753604889,
        0.15459959208965302,
        0.017438961192965508,
        0.11816023290157318,
        0.2396015226840973,
        -0.033925555646419525,
        0.022214306518435478,
        -0.14219199120998383,
        -0.20147305727005005,
        0.18314522504806519,
        -0.13265031576156616,
        0.14904765784740448,
        0.20359764993190765,
        -0.12404941767454147,
        -0.13266943395137787,
        0.06981324404478073,
        -0.3271211087703705,
        0.014201648533344269,
        0.07827941328287125,
        0.05426428094506264,
        -0.10021309554576874,
        0.08595243841409683,
        -0.11069291830062866,
        -0.07203266769647598,
        -0.07575558871030807,
        -0.027656491845846176,
        0.031512413173913956,
        0.06939861923456192,
        -0.16041311621665955,
        0.01758618652820587,
        0.1216232031583786,
        -0.03301231190562248,
        -0.14046134054660797,
        0.09433659166097641,
        0.09230174124240875,
        -0.19805651903152466,
        -0.15300282835960388,
        0.005376709159463644,
        -0.0544973723590374,
        0.02969999425113201,
        -0.06450685113668442
      ],
      [
        -0.12883558869361877,
        -0.09061302989721298,
        0.10496658831834793,
        0.019641011953353882,
        0.16479350626468658,
        0.15779109299182892,
        -0.00622521061450243,
        0.07645922154188156,
        -0.019995998591184616,
        0.09998369216918945,
        -0.11581488698720932,
        -0.034905221313238144,
        -0.02048010751605034,
        0.005366779863834381,
        0.060548361390829086,
        0.1278313398361206,
        0.12203472852706909,
        -0.1155347228050232,
        -0.03518812730908394,
        0.04063771292567253,
        0.0796864777803421,
        -0.12555135786533356,
        0.062230173498392105,
        0.07532099634408951,
        0.07939037680625916,
        -0.049496185034513474,
        0.02092731185257435,
        0.0929681584239006,
        0.14477530121803284,
        -0.05576092004776001,
        0.09595801681280136,
        -0.06670506298542023,
        0.054858870804309845,
        -0.1025708019733429,
        0.015190375968813896,
        -0.14119036495685577,
        0.03827850893139839,
        -0.1298770159482956,
        -0.09338440001010895,
        -0.06277551501989365,
        -0.058878716081380844,
        0.1305485963821411,
        0.12862858176231384,
        0.1073325052857399,
        -0.12013588100671768,
        0.12253890186548233,
        0.13083362579345703,
        -0.007794369012117386,
        -0.08019497245550156,
        0.1138492301106453,
        0.13850022852420807,
        0.03814492002129555,
        -0.16565226018428802,
        -0.09235380589962006,
        0.12519307434558868,
        -0.12067598849534988,
        0.08451398462057114,
        0.07503503561019897,
        -0.009945694357156754,
        -0.1318415105342865,
        -0.11990846693515778,
        0.12551246583461761,
        0.05374374985694885,
        0.06863453984260559,
        -0.09561403095722198,
        -0.03723757341504097,
        0.09298489987850189,
        -0.09405038505792618,
        0.06620897352695465,
        0.0177572350949049,
        0.10080921649932861,
        -0.06966549158096313,
        -0.07288430631160736,
        -0.1120465099811554,
        0.07869980484247208,
        -0.02604602836072445,
        -0.09434166550636292,
        -0.12940888106822968,
        0.11785584688186646,
        0.12822699546813965,
        -0.0686836764216423,
        -0.04485977813601494,
        -0.06713710725307465,
        -0.0820867046713829,
        -0.11963570863008499,
        -0.009709271602332592,
        0.06996428221464157,
        -0.1001686155796051,
        0.1427249163389206,
        -0.022261805832386017,
        -0.10408686846494675,
        -0.1058662086725235,
        0.1438990831375122,
        -0.03709271177649498,
        0.08362723141908646,
        0.021095415577292442,
        0.10668071359395981,
        -0.10230462998151779,
        0.04365987703204155,
        0.04922858253121376,
        -0.03165536746382713,
        -0.10316219180822372,
        -0.047390613704919815,
        0.03346218541264534,
        -0.08920542895793915,
        -0.14729778468608856,
        0.05699290707707405,
        0.02802642621099949,
        -0.10745570063591003,
        -0.04888564348220825,
        0.010627602227032185,
        0.08961472660303116,
        0.06775404512882233,
        0.12229318916797638,
        -0.005576854106038809,
        0.05403982475399971,
        -0.11928562819957733,
        0.052838295698165894,
        -0.08123704791069031,
        0.11488327383995056,
        0.06213637813925743,
        -0.020712826400995255,
        -0.03685006499290466,
        0.0854463055729866,
        0.0522020198404789,
        0.03275046497583389,
        0.03084026835858822,
        -0.12506404519081116
      ],
      [
        -0.04538142681121826,
        -0.1048847958445549,
        -0.06351338326931,
        -0.061939820647239685,
        0.0292123444378376,
        0.17997731268405914,
        0.05750671401619911,
        0.03709208592772484,
        0.0895451158285141,
        0.17776761949062347,
        0.1074371486902237,
        0.07065215706825256,
        0.061173420399427414,
        -0.18559248745441437,
        0.07454847544431686,
        0.09210238605737686,
        -0.12948574125766754,
        -0.11814206838607788,
        -0.06609005481004715,
        0.18632552027702332,
        0.16832378506660461,
        -0.18779602646827698,
        0.14461581408977509,
        0.041910719126462936,
        -0.06214461103081703,
        -0.018361378461122513,
        0.07652346789836884,
        0.055946022272109985,
        0.04381120577454567,
        -0.12394896894693375,
        0.016682852059602737,
        -0.16108910739421844,
        -0.15935014188289642,
        -0.046240467578172684,
        -0.07204055786132812,
        -0.20090073347091675,
        -0.1205650120973587,
        0.12917077541351318,
        0.1436597853899002,
        -0.12842123210430145,
        -0.0672665685415268,
        0.10027061402797699,
        -0.0220355112105608,
        0.03650069609284401,
        -0.1310575306415558,
        0.12131201475858688,
        -0.14028765261173248,
        -0.1034318134188652,
        0.06570148468017578,
        0.03644170984625816,
        0.10431976616382599,
        -0.05749902501702309,
        -0.10894148051738739,
        -0.0562027245759964,
        -0.0573258250951767,
        -0.1350526660680771,
        0.12416499853134155,
        -0.059067580848932266,
        -0.02766033262014389,
        0.018534427508711815,
        0.15966160595417023,
        -0.03156366944313049,
        -0.10440532863140106,
        0.07832001894712448,
        -0.11203112453222275,
        0.13815946877002716,
        -0.060771964490413666,
        0.1439611166715622,
        -0.05702986195683479,
        0.22049282491207123,
        0.09641211479902267,
        0.123324915766716,
        -0.009888937696814537,
        -0.09547267109155655,
        0.03678198158740997,
        0.11262324452400208,
        -0.2075200229883194,
        0.087047278881073,
        0.03928409516811371,
        0.09971919655799866,
        -0.0913613811135292,
        -0.14538978040218353,
        0.039260849356651306,
        0.004849489312618971,
        -0.10576049983501434,
        0.026966707780957222,
        0.10733017325401306,
        -0.1336345225572586,
        -0.00701806740835309,
        -0.08427044749259949,
        -0.04633660987019539,
        -0.12369290739297867,
        0.10197987407445908,
        0.08040495961904526,
        0.056251659989356995,
        -0.006681592203676701,
        0.0592985674738884,
        -0.08651643991470337,
        -0.15809214115142822,
        -0.14313633739948273,
        -0.04119156301021576,
        -0.0940493494272232,
        0.07145674526691437,
        0.1194593757390976,
        -0.029984820634126663,
        -0.1736527383327484,
        0.11129099130630493,
        0.17560873925685883,
        -0.13553380966186523,
        0.14416469633579254,
        0.03687035292387009,
        0.0017676211427897215,
        0.07771088927984238,
        -0.13256895542144775,
        -0.18947254121303558,
        0.010198645293712616,
        0.11782799661159515,
        0.08360205590724945,
        0.11907801032066345,
        0.10188772529363632,
        0.055018942803144455,
        0.03543781116604805,
        -0.06717465072870255,
        0.15841791033744812,
        0.13270117342472076,
        -0.12446930259466171,
        -0.1637020707130432,
        -0.02147499844431877
      ],
      [
        -0.23695313930511475,
        -0.1235281229019165,
        0.14428669214248657,
        -0.03529956564307213,
        0.0023499815724790096,
        -0.252188503742218,
        -0.08906323462724686,
        0.6518533825874329,
        -0.35848838090896606,
        -0.21913711726665497,
        0.05501255393028259,
        -0.268230676651001,
        0.6386469006538391,
        0.25037673115730286,
        0.027996962890028954,
        0.07825074344873428,
        -0.1244896873831749,
        -0.17872826755046844,
        0.37749364972114563,
        -0.4399659335613251,
        -0.2837984561920166,
        0.32129916548728943,
        -0.16223551332950592,
        -0.30044615268707275,
        0.045759402215480804,
        -0.06953387707471848,
        -0.010140879079699516,
        0.08976872265338898,
        -0.5343774557113647,
        -0.08337065577507019,
        -0.3457925617694855,
        0.1805633306503296,
        0.014177965000271797,
        0.1766417920589447,
        0.3442196846008301,
        0.05369659513235092,
        -0.08178553730249405,
        -0.03385946527123451,
        -0.024537622928619385,
        0.3370959460735321,
        0.06593646854162216,
        0.05190998688340187,
        -0.07489608228206635,
        -0.6817688345909119,
        0.30143117904663086,
        -0.024068422615528107,
        0.026400001719594002,
        -0.57940673828125,
        -0.04826340451836586,
        0.4669913649559021,
        -0.22361674904823303,
        0.07799917459487915,
        0.19640080630779266,
        -0.06201604753732681,
        -0.018927600234746933,
        -0.10163649916648865,
        -0.9704320430755615,
        -0.0830303207039833,
        -0.6150168180465698,
        -0.02844393067061901,
        -0.6795567274093628,
        0.03677479550242424,
        0.07427150011062622,
        -0.10573260486125946,
        0.31185951828956604,
        -0.005606004502624273,
        -0.21470826864242554,
        -0.10577050596475601,
        0.3416740894317627,
        -0.5883277058601379,
        -0.10793084651231766,
        -0.10298150032758713,
        0.6634573340415955,
        0.021234318614006042,
        0.03624218329787254,
        0.08477750420570374,
        0.12073169648647308,
        -0.8425950407981873,
        -0.12014120072126389,
        0.15364080667495728,
        -0.2638755142688751,
        0.14996999502182007,
        -0.1715555191040039,
        -0.11914220452308655,
        0.8328873515129089,
        -0.15051868557929993,
        0.31118831038475037,
        -0.0575346015393734,
        0.05499894171953201,
        0.2702157199382782,
        0.09174094349145889,
        0.4955233335494995,
        0.16452227532863617,
        0.14393135905265808,
        0.09005356580018997,
        -0.3340497314929962,
        0.30696359276771545,
        0.10695723444223404,
        0.051198676228523254,
        0.2859939634799957,
        -0.01961728371679783,
        0.017757322639226913,
        0.45952531695365906,
        -0.538597822189331,
        -0.25105738639831543,
        0.9037229418754578,
        0.22655202448368073,
        -0.4799604117870331,
        0.7890480160713196,
        -0.2036895900964737,
        -0.8739266395568848,
        -0.6133902072906494,
        -0.12191960960626602,
        0.2572145462036133,
        0.7688223719596863,
        -0.484142929315567,
        -0.2387785166501999,
        0.34100982546806335,
        0.1503068208694458,
        -0.22786951065063477,
        0.0037270854227244854,
        -0.19129887223243713,
        0.04450976476073265,
        -0.2746472954750061,
        -0.16313621401786804,
        0.04617822915315628,
        0.15937721729278564,
        0.05085020512342453
      ],
      [
        0.15231716632843018,
        0.04516185075044632,
        0.08334559947252274,
        0.15364013612270355,
        0.09462103247642517,
        0.08101804554462433,
        -0.012393628247082233,
        -0.14429306983947754,
        0.08018571883440018,
        -0.09322284907102585,
        -0.012610167264938354,
        -0.13160006701946259,
        -0.1915011703968048,
        -0.08614436537027359,
        -0.15459468960762024,
        0.08943025022745132,
        0.044467758387327194,
        -0.03855012729763985,
        0.12240917235612869,
        0.10796833783388138,
        0.10303667932748795,
        -0.11572476476430893,
        -0.11242067813873291,
        -0.04253050684928894,
        0.09227978438138962,
        -0.1248062327504158,
        -0.11938121169805527,
        -0.0004960241494700313,
        0.08855940401554108,
        0.08862554281949997,
        0.047573816031217575,
        -0.036368388682603836,
        -0.06117377430200577,
        -0.0639786645770073,
        0.07862924039363861,
        -0.1279788762331009,
        -0.13938365876674652,
        -0.022376297041773796,
        0.007676605600863695,
        0.046719856560230255,
        0.06100037693977356,
        0.1474127471446991,
        -0.062205422669649124,
        0.08403905481100082,
        -0.1303187757730484,
        -0.08390208333730698,
        -0.08088884502649307,
        0.1711147427558899,
        -0.10168584436178207,
        -0.09057193249464035,
        0.06761733442544937,
        -0.10474114865064621,
        0.033648304641246796,
        -0.11470108479261398,
        0.13411040604114532,
        0.11619079858064651,
        0.1260606199502945,
        0.11143754422664642,
        0.13468798995018005,
        0.038192059844732285,
        0.08049552142620087,
        -0.010265281423926353,
        -0.042178958654403687,
        0.027340726926922798,
        -0.12894706428050995,
        -0.13741719722747803,
        0.0386592298746109,
        -0.07872305810451508,
        -0.08497489988803864,
        0.10596254467964172,
        -0.05749783292412758,
        0.14865855872631073,
        -0.11836937814950943,
        -0.14611783623695374,
        0.06131328269839287,
        0.010919725522398949,
        -0.014036942273378372,
        0.07592011243104935,
        -0.03676731511950493,
        -0.15036466717720032,
        0.11035691201686859,
        -0.06761230528354645,
        0.12653762102127075,
        -0.05839943140745163,
        0.0726323202252388,
        0.033411599695682526,
        -0.06274229288101196,
        -0.056510619819164276,
        0.148742213845253,
        0.1090879738330841,
        -0.16514405608177185,
        -0.10758190602064133,
        -0.06759989261627197,
        0.03887539356946945,
        -0.10171262174844742,
        -0.06891655176877975,
        -0.0056028347462415695,
        0.0025820890441536903,
        -0.09231677651405334,
        0.06661860644817352,
        0.13707590103149414,
        -0.057845212519168854,
        0.11306518316268921,
        0.11172134429216385,
        0.040704574435949326,
        -0.11375758051872253,
        0.12166212499141693,
        0.14645490050315857,
        -0.17826437950134277,
        0.05377320200204849,
        -0.05609751120209694,
        -0.018311042338609695,
        -0.07678414136171341,
        -0.02293148636817932,
        -0.0879024863243103,
        -0.006877172738313675,
        0.11995195597410202,
        0.007393491454422474,
        -0.11619257926940918,
        -0.048448964953422546,
        -0.11951002478599548,
        -0.06150613725185394,
        0.09033019095659256,
        0.06129571422934532,
        -0.04281493276357651,
        0.08294074982404709,
        -0.001686125178821385,
        0.13084639608860016
      ],
      [
        -0.11130964756011963,
        -0.23421090841293335,
        -0.03972239792346954,
        -0.029331281781196594,
        0.04648550599813461,
        -0.06925498694181442,
        -0.09486424922943115,
        0.16338743269443512,
        0.04815297946333885,
        -0.15145324170589447,
        0.05164950713515282,
        0.09984156489372253,
        0.249113529920578,
        0.05578438565135002,
        0.11251482367515564,
        0.10084057599306107,
        -0.06527592986822128,
        -0.11450276523828506,
        0.06958705186843872,
        -0.2430253028869629,
        0.09475220739841461,
        0.13516108691692352,
        -0.1353297233581543,
        0.06216701492667198,
        -0.027165882289409637,
        -0.09179380536079407,
        0.17884425818920135,
        0.14126430451869965,
        0.010602443479001522,
        -0.006639717146754265,
        -0.20376577973365784,
        0.21008385717868805,
        0.026868246495723724,
        0.26296353340148926,
        0.20188447833061218,
        0.13264018297195435,
        0.10781744867563248,
        0.03470318764448166,
        0.12458588927984238,
        0.22046512365341187,
        0.12498953193426132,
        0.051949501037597656,
        0.09641580283641815,
        -0.1300027221441269,
        0.142830491065979,
        -0.19077464938163757,
        0.08759022504091263,
        -0.12715469300746918,
        0.07896825671195984,
        0.1128789559006691,
        -0.1304277628660202,
        -0.05132332444190979,
        0.040729060769081116,
        -0.1136709600687027,
        -0.06870806217193604,
        -0.031918518245220184,
        -0.23048211634159088,
        0.1195349171757698,
        -0.24293170869350433,
        0.1477949172258377,
        0.05501671880483627,
        0.15211224555969238,
        0.07458141446113586,
        0.026397285982966423,
        -0.08104633539915085,
        -0.14216552674770355,
        -0.07924052327871323,
        0.01962508261203766,
        0.09275170415639877,
        -0.18252818286418915,
        -0.08977942168712616,
        -0.021135298535227776,
        0.16624096035957336,
        0.071086585521698,
        -0.08933786302804947,
        0.13321883976459503,
        -0.00477190176025033,
        -0.19735389947891235,
        -0.014569563791155815,
        0.13437558710575104,
        -0.12114045023918152,
        -0.04421607032418251,
        0.036870669573545456,
        -0.05763070657849312,
        0.005699443630874157,
        -0.10719006508588791,
        -0.05219671502709389,
        -0.027667367830872536,
        0.0014295243890956044,
        0.04382390156388283,
        0.049640338867902756,
        0.0073603191412985325,
        0.20780834555625916,
        0.13021481037139893,
        -0.042882248759269714,
        -0.06046589836478233,
        0.21657110750675201,
        -0.09508272260427475,
        -0.01510953065007925,
        0.004676454700529575,
        -0.0873541533946991,
        -0.03269841521978378,
        0.03091777302324772,
        -0.3761434853076935,
        0.037599045783281326,
        -0.013217772357165813,
        0.1604362577199936,
        -0.0742029920220375,
        0.14432451128959656,
        0.07689730077981949,
        -0.0028110668063163757,
        0.016979306936264038,
        0.012671294622123241,
        -0.002674457151442766,
        0.11940120160579681,
        -0.15743310749530792,
        -0.1678074300289154,
        0.052129440009593964,
        -0.04383999854326248,
        -0.07786619663238525,
        -0.04353870078921318,
        -0.13210125267505646,
        -0.010613122023642063,
        -0.15206924080848694,
        -0.06537900865077972,
        -0.09409455209970474,
        0.18465285003185272,
        -0.11213427037000656
      ],
      [
        -0.06415125727653503,
        -0.009431327693164349,
        0.08189785480499268,
        0.02463497407734394,
        0.16834762692451477,
        0.04811790958046913,
        0.08471019566059113,
        -0.21953803300857544,
        0.06722816824913025,
        0.12775766849517822,
        -0.07406195998191833,
        0.033369775861501694,
        -0.176198810338974,
        -0.17629753053188324,
        -0.05456738546490669,
        -0.17143285274505615,
        -0.03380769491195679,
        0.000868676754180342,
        -0.11824587732553482,
        0.053658824414014816,
        0.0007489955169148743,
        -0.060537680983543396,
        0.1398504674434662,
        0.03222586214542389,
        0.04825641214847565,
        -0.04586782306432724,
        0.037657007575035095,
        0.011056476272642612,
        0.09089141339063644,
        -0.10889266431331635,
        0.19230064749717712,
        -0.053826794028282166,
        -0.12032705545425415,
        -0.2117035686969757,
        -0.15187674760818481,
        -0.1055750772356987,
        -0.14419987797737122,
        -0.031275101006031036,
        -0.09880795329809189,
        -0.1667380928993225,
        0.13206858932971954,
        0.08091331273317337,
        0.14360499382019043,
        0.27474838495254517,
        -0.15784595906734467,
        0.1735638976097107,
        0.018168313428759575,
        0.16481003165245056,
        -0.07911337912082672,
        -0.053506650030612946,
        0.14489753544330597,
        -0.04287123307585716,
        -0.0713844895362854,
        -0.048553720116615295,
        0.10467815399169922,
        -0.060064371675252914,
        0.18736602365970612,
        -0.1092011034488678,
        0.14259788393974304,
        0.1565815657377243,
        0.05594532936811447,
        -0.13265974819660187,
        0.09611594676971436,
        -0.09612009674310684,
        -0.05464775860309601,
        -0.07561760395765305,
        -0.04343855753540993,
        -0.12449263781309128,
        -0.0576416552066803,
        0.14399205148220062,
        -0.11662247776985168,
        -0.12864771485328674,
        -0.09289366006851196,
        0.11461181938648224,
        -0.04458427056670189,
        0.029122523963451385,
        0.08712314814329147,
        0.26683279871940613,
        0.11558246612548828,
        0.04520092159509659,
        0.12073186784982681,
        -0.20901939272880554,
        -0.13012529909610748,
        -0.07408437132835388,
        -0.0005352831212803721,
        0.14899015426635742,
        0.0877247229218483,
        -0.04757465794682503,
        -0.16031359136104584,
        -0.1467820405960083,
        0.08656222373247147,
        -0.03973255679011345,
        0.09149323403835297,
        0.031981222331523895,
        -0.05211092159152031,
        -0.09591832756996155,
        -0.17249540984630585,
        0.07265543192625046,
        0.04092826321721077,
        -0.1521620750427246,
        0.007405929267406464,
        -0.09413989633321762,
        -0.05086095631122589,
        0.015443948097527027,
        0.016589945182204247,
        -0.09706001728773117,
        -0.10937303304672241,
        0.03704598918557167,
        -0.24289140105247498,
        0.018044445663690567,
        0.20200718939304352,
        0.03720025345683098,
        0.13794928789138794,
        -0.1218395084142685,
        -0.06325241923332214,
        0.18073153495788574,
        -0.030318599194288254,
        0.00032930044108070433,
        0.09125613421201706,
        -0.008161730132997036,
        0.045549146831035614,
        0.1569593995809555,
        0.1338208168745041,
        0.09226983785629272,
        0.10366176068782806,
        0.09110583364963531,
        0.06557892262935638,
        -0.01570119336247444
      ],
      [
        -0.16535547375679016,
        0.08116505295038223,
        -0.003550209803506732,
        -0.06160511076450348,
        -0.12946392595767975,
        -0.12345430999994278,
        -0.10485871881246567,
        -0.0025043694768100977,
        -0.0969514474272728,
        -0.10404892265796661,
        -0.038855571299791336,
        -0.01208614930510521,
        0.06491977721452713,
        0.12476411461830139,
        0.06413771212100983,
        -0.06801710277795792,
        0.0913764089345932,
        0.10940027981996536,
        0.14830055832862854,
        0.03254719823598862,
        0.1308048814535141,
        0.07648077607154846,
        -0.02852892503142357,
        -0.15224777162075043,
        -0.018801258876919746,
        0.07160557806491852,
        0.08701196312904358,
        -0.09706994146108627,
        -0.01727205328643322,
        0.14403946697711945,
        -0.1327372044324875,
        0.08793583512306213,
        0.0414581261575222,
        0.02631634660065174,
        0.0993347093462944,
        0.07978744059801102,
        -0.05611284822225571,
        0.08731678128242493,
        -0.12557168304920197,
        0.08787302672863007,
        0.031165998429059982,
        -0.02371128462255001,
        0.11877139657735825,
        0.04655511677265167,
        -0.03244904801249504,
        -0.03179110959172249,
        0.11135095357894897,
        0.055253222584724426,
        -0.06500253081321716,
        0.060102373361587524,
        -0.13616906106472015,
        0.14358998835086823,
        -0.03859127685427666,
        -0.12365563213825226,
        0.11026892811059952,
        -0.08258706331253052,
        0.11492406576871872,
        0.10574167966842651,
        -0.1061001643538475,
        0.009035543538630009,
        0.10416840761899948,
        -0.11058049649000168,
        0.011782652698457241,
        -0.019197704270482063,
        -0.1110309287905693,
        0.029061369597911835,
        0.11581077426671982,
        0.09239419549703598,
        0.0941370353102684,
        -0.005865831859409809,
        -0.042150598019361496,
        0.02211829461157322,
        0.023783233016729355,
        0.07408628612756729,
        -0.09584615379571915,
        -0.0402536541223526,
        -0.11574951559305191,
        0.08304046839475632,
        0.09688035398721695,
        -0.11779549717903137,
        -0.009204787202179432,
        0.136549711227417,
        -0.0006662090891040862,
        0.16967004537582397,
        -0.01771661825478077,
        0.11690252274274826,
        0.014641545712947845,
        0.09135656803846359,
        -0.10635547339916229,
        0.15193139016628265,
        0.004898183513432741,
        0.10425729304552078,
        0.0653860867023468,
        0.09067517518997192,
        -0.034045521169900894,
        -0.15593062341213226,
        0.12118179351091385,
        -0.11945527046918869,
        0.04258226603269577,
        0.13137060403823853,
        -0.056547876447439194,
        0.15677545964717865,
        -0.03692727908492088,
        -0.15765249729156494,
        -0.12002257257699966,
        -0.03303225338459015,
        0.042172323912382126,
        -0.10192690789699554,
        0.02734452113509178,
        0.0012454520910978317,
        0.09308826178312302,
        -0.11908915638923645,
        0.015845924615859985,
        0.14593830704689026,
        -0.0010029799304902554,
        -0.03154443949460983,
        0.12709665298461914,
        0.12946395576000214,
        0.09122833609580994,
        -0.15331661701202393,
        -0.029175005853176117,
        -0.13594095408916473,
        -0.06922140717506409,
        -0.07211977243423462,
        0.04420216381549835,
        0.15770608186721802,
        0.11681380122900009,
        -0.12406181544065475
      ],
      [
        0.05643093213438988,
        0.03378595411777496,
        -0.14366790652275085,
        0.14018042385578156,
        0.21104837954044342,
        -0.09668740630149841,
        -0.17320314049720764,
        0.11116380244493484,
        0.09128259867429733,
        0.05300445854663849,
        0.09684807062149048,
        -0.13741269707679749,
        0.08007443696260452,
        -0.020557411015033722,
        -0.05821701139211655,
        -0.11735867708921432,
        0.1352861225605011,
        0.12660367786884308,
        -0.04909505695104599,
        0.15798480808734894,
        0.09949752688407898,
        0.025920649990439415,
        -0.14670653641223907,
        0.024785520508885384,
        -0.016205288469791412,
        0.15418705344200134,
        -0.0926036462187767,
        -0.1509963721036911,
        -0.18155403435230255,
        -0.02706604078412056,
        -0.12811830639839172,
        -0.033530816435813904,
        -0.03698429837822914,
        -0.31362640857696533,
        -0.04513980448246002,
        -0.056276336312294006,
        0.10800223052501678,
        0.14355817437171936,
        0.04065858572721481,
        0.04400433599948883,
        -0.03226615488529205,
        0.08295360207557678,
        0.1391969472169876,
        -0.11628443002700806,
        -0.167204812169075,
        -0.029037373140454292,
        -0.025700628757476807,
        -0.09587529301643372,
        0.024073246866464615,
        -0.07003358751535416,
        -0.13455429673194885,
        0.020762290805578232,
        0.04386822134256363,
        0.058289457112550735,
        -0.11486270278692245,
        -0.020516572520136833,
        0.15873289108276367,
        0.1632814258337021,
        0.16461820900440216,
        -0.03222249820828438,
        -0.06713773310184479,
        0.1217116266489029,
        0.15836338698863983,
        0.027990782633423805,
        0.06738699972629547,
        0.018110793083906174,
        -0.04937322065234184,
        0.07994158565998077,
        0.032064713537693024,
        -0.1256779581308365,
        0.06822159141302109,
        0.06853285431861877,
        0.10905816406011581,
        -0.0676351860165596,
        0.05777231603860855,
        0.017706001177430153,
        -0.17019902169704437,
        -0.126739040017128,
        0.1705043911933899,
        0.08919227123260498,
        0.014833815395832062,
        -0.0871368795633316,
        0.038754433393478394,
        0.10257530212402344,
        0.0829494372010231,
        0.12790539860725403,
        0.0193787794560194,
        -0.18397855758666992,
        -0.09086314588785172,
        0.10290499031543732,
        -0.019305288791656494,
        0.03854309394955635,
        -0.13126671314239502,
        0.08257855474948883,
        0.018840977922081947,
        -0.01804625429213047,
        0.060310713946819305,
        -0.019119810312986374,
        -0.09049434214830399,
        -0.03389314189553261,
        -0.0964314416050911,
        -0.01764949969947338,
        -0.06020485609769821,
        0.04833189770579338,
        0.0030864442232996225,
        -0.10071420669555664,
        0.005052006803452969,
        0.06680160760879517,
        0.0579480342566967,
        -0.03819265216588974,
        -0.007406121585518122,
        -0.05528680235147476,
        0.08966206759214401,
        0.13804616034030914,
        0.14918333292007446,
        -0.09852669388055801,
        0.12123562395572662,
        0.06289494037628174,
        -0.01378395315259695,
        0.06945037841796875,
        -0.10660701990127563,
        -0.11952853947877884,
        0.16077807545661926,
        0.03187091648578644,
        0.10688193887472153,
        -0.11696408689022064,
        0.00850317906588316,
        0.08684460818767548
      ],
      [
        -0.0879468247294426,
        -0.12987153232097626,
        0.12353663891553879,
        0.03895824775099754,
        0.02155289612710476,
        0.07579828053712845,
        -0.1506938934326172,
        0.18836474418640137,
        -0.19233419001102448,
        0.002815507585182786,
        0.2348209172487259,
        0.06554076075553894,
        0.1464281529188156,
        0.07211916148662567,
        0.002015321748331189,
        -0.022797569632530212,
        0.038006898015737534,
        0.12021137028932571,
        0.06653483211994171,
        -0.305127888917923,
        -0.07250746339559555,
        0.007607086095958948,
        -0.06400667130947113,
        -0.17559093236923218,
        -0.005057564936578274,
        -0.07286100834608078,
        -0.011128121986985207,
        -0.03275882825255394,
        -0.015579595230519772,
        0.03824477270245552,
        0.04680071026086807,
        0.047651417553424835,
        0.082621730864048,
        0.16825422644615173,
        0.16138458251953125,
        0.044920165091753006,
        0.11571238934993744,
        0.009040193632245064,
        -0.04255947098135948,
        0.19733017683029175,
        0.05424496904015541,
        -0.11436998099088669,
        -0.013785895891487598,
        -0.24101239442825317,
        0.2851453721523285,
        -0.05049092695116997,
        0.13395297527313232,
        -0.22354519367218018,
        0.11526478081941605,
        0.28043755888938904,
        -0.042779240757226944,
        -0.07490302622318268,
        0.20140184462070465,
        -0.15621793270111084,
        -0.13862428069114685,
        -0.05234914273023605,
        0.017946157604455948,
        -0.04825371503829956,
        -0.07601974904537201,
        -0.01619301550090313,
        -0.006292874459177256,
        0.15003375709056854,
        0.07936606556177139,
        0.014033278450369835,
        0.16971853375434875,
        0.09023571759462357,
        -0.09064406156539917,
        0.0952630341053009,
        0.19596298038959503,
        -0.020868780091404915,
        -0.042825303971767426,
        0.11602280288934708,
        0.11618071794509888,
        0.08762288093566895,
        -0.11461463570594788,
        -0.11790719628334045,
        -0.03861653432250023,
        -0.09964682161808014,
        -0.15195158123970032,
        -0.05245234817266464,
        0.03544529154896736,
        0.09747020155191422,
        -0.05327695235610008,
        -0.03168019279837608,
        -0.018124058842658997,
        -0.00810212455689907,
        0.11993547528982162,
        -0.08839360624551773,
        0.1487584412097931,
        0.04786025360226631,
        0.1137162372469902,
        0.05713808536529541,
        0.17916962504386902,
        -0.0987013652920723,
        -0.026205915957689285,
        -0.10757862776517868,
        0.20291782915592194,
        0.010543904267251492,
        -0.10960422456264496,
        0.08445045351982117,
        -0.09134654700756073,
        0.029512371867895126,
        -0.03107265941798687,
        -0.2279379963874817,
        -0.1678113490343094,
        0.07861455529928207,
        0.10780175030231476,
        -0.23988686501979828,
        0.1473046988248825,
        -0.15880799293518066,
        -0.2223975658416748,
        -0.17708922922611237,
        -0.042651500552892685,
        0.04473334923386574,
        0.2561359703540802,
        -0.14759576320648193,
        -0.10839783400297165,
        0.0702376738190651,
        -0.0409218929708004,
        -0.11443082243204117,
        0.12377665191888809,
        -0.03594829887151718,
        -0.09650199115276337,
        0.04071063548326492,
        0.034344352781772614,
        0.07847511768341064,
        0.07981321215629578,
        -0.11220324039459229
      ],
      [
        -0.07558171451091766,
        -0.05328189209103584,
        -0.10660748183727264,
        -0.15565423667430878,
        0.11327479779720306,
        0.049897920340299606,
        0.030037719756364822,
        -0.15910714864730835,
        0.10709621757268906,
        0.17332081496715546,
        0.09254796802997589,
        -0.04594092071056366,
        -0.044594280421733856,
        -0.12315455079078674,
        0.0942705050110817,
        0.045139145106077194,
        -0.0918266773223877,
        -0.12576062977313995,
        -0.15285032987594604,
        0.12384433299303055,
        0.07318529486656189,
        0.05598084256052971,
        -0.012850893661379814,
        0.16629324853420258,
        0.10501503944396973,
        -0.13383600115776062,
        -0.024156393483281136,
        0.0358450748026371,
        0.12865221500396729,
        -0.16574960947036743,
        0.11031527072191238,
        -0.031532056629657745,
        0.07505007088184357,
        -0.17416483163833618,
        0.0840083509683609,
        0.08913667500019073,
        -0.029482368379831314,
        -0.08726432174444199,
        0.04361078515648842,
        -0.07947265356779099,
        -0.058957017958164215,
        -0.05936407670378685,
        0.14925408363342285,
        0.16058875620365143,
        -0.01616821251809597,
        0.030985701829195023,
        -0.12805095314979553,
        0.16785475611686707,
        0.08886075764894485,
        0.01946575939655304,
        0.07080873101949692,
        -0.1731099784374237,
        -0.09834782779216766,
        0.1381538212299347,
        -0.005078723654150963,
        0.16319707036018372,
        -0.060162823647260666,
        0.0836411863565445,
        0.21528388559818268,
        -0.10540466755628586,
        0.1697307527065277,
        0.038760602474212646,
        0.06692036241292953,
        -0.043924059718847275,
        0.06870423257350922,
        0.08632732927799225,
        -0.08215703070163727,
        0.1643095314502716,
        -0.04173901304602623,
        0.01905219443142414,
        0.045749157667160034,
        0.05149001255631447,
        -0.18541741371154785,
        0.1731925904750824,
        -0.020283786579966545,
        0.060201194137334824,
        -0.06542692333459854,
        -0.09711486101150513,
        -0.15151384472846985,
        -0.07451596856117249,
        -0.0029277976136654615,
        0.07763893902301788,
        -0.0062837153673172,
        0.1468937247991562,
        0.08422908931970596,
        0.04340318217873573,
        -0.08666621893644333,
        0.016430241987109184,
        -0.08249111473560333,
        -0.15653958916664124,
        0.04780042916536331,
        0.021548794582486153,
        -0.06528502702713013,
        0.10544079542160034,
        0.0071558342315256596,
        0.018135592341423035,
        -0.08866245299577713,
        0.17732037603855133,
        0.09962296485900879,
        -0.1560949683189392,
        -0.08304156363010406,
        -0.1480112373828888,
        0.0876062884926796,
        0.1880251169204712,
        0.08937688171863556,
        0.028985336422920227,
        -0.09312137216329575,
        0.1484852433204651,
        -0.05654188618063927,
        -0.009362781420350075,
        0.07425754517316818,
        0.0039873369969427586,
        0.17330749332904816,
        -0.003450981341302395,
        0.0437195710837841,
        -0.047863371670246124,
        -0.1344946026802063,
        -0.09210244566202164,
        0.014401344582438469,
        -0.08260694891214371,
        -0.04116944968700409,
        0.03445623442530632,
        0.18186524510383606,
        0.17427118122577667,
        0.11566201597452164,
        -0.05528251826763153,
        -0.09659555554389954,
        0.04051247984170914
      ],
      [
        -0.0469171404838562,
        0.1958257555961609,
        0.03963791951537132,
        -0.1378762125968933,
        0.06588082760572433,
        -0.026868950575590134,
        0.07311375439167023,
        -0.10201898217201233,
        0.016089586541056633,
        0.1600358486175537,
        -0.12452953308820724,
        0.1418129801750183,
        0.03468054160475731,
        -0.03177420794963837,
        0.12458635121583939,
        -0.12473861128091812,
        -0.10609838366508484,
        -0.04631069675087929,
        0.09837961941957474,
        0.03185679391026497,
        0.09956143796443939,
        -0.15356774628162384,
        0.012645862065255642,
        0.19680485129356384,
        0.0895145982503891,
        0.0757918506860733,
        -0.08736363053321838,
        0.06404951959848404,
        0.15648198127746582,
        -0.15015007555484772,
        0.0588555708527565,
        -0.10493004322052002,
        0.04860881716012955,
        -0.10140333324670792,
        -0.05776340886950493,
        -0.1667499989271164,
        -0.11297667026519775,
        -0.016880955547094345,
        0.03262481838464737,
        -0.022389154881238937,
        0.12116479873657227,
        0.00674084760248661,
        -0.09218620508909225,
        0.09314318001270294,
        -0.19236037135124207,
        0.18199403584003448,
        0.009766846895217896,
        0.03636142984032631,
        0.053340762853622437,
        0.036118172109127045,
        -0.09803355485200882,
        -0.08532100170850754,
        -0.08176768571138382,
        0.015393290668725967,
        0.11189644783735275,
        -0.05699361860752106,
        0.11226487904787064,
        0.00970505177974701,
        -0.02197585068643093,
        0.08305744081735611,
        0.033781543374061584,
        -0.12932313978672028,
        0.051063839346170425,
        -0.07905709743499756,
        -0.01978493481874466,
        -0.06967156380414963,
        0.16768769919872284,
        -0.0052941241301596165,
        0.12835073471069336,
        0.17872384190559387,
        -0.11176837980747223,
        -0.12940974533557892,
        0.06563431769609451,
        -0.05530355125665665,
        0.11247805505990982,
        0.022701432928442955,
        -0.018465744331479073,
        0.1392197161912918,
        0.06816363334655762,
        0.11733531951904297,
        0.013040556572377682,
        0.09232205897569656,
        -0.14014944434165955,
        -0.11337106674909592,
        -0.1505117416381836,
        0.06213952973484993,
        -0.15718387067317963,
        0.05067887157201767,
        0.04254055768251419,
        -0.1274094581604004,
        -0.14779600501060486,
        -0.09737792611122131,
        -0.12726108729839325,
        -0.07871685922145844,
        -0.0008973103249445558,
        0.07662247866392136,
        -0.11263193935155869,
        -0.09130536019802094,
        -0.15340283513069153,
        0.022897295653820038,
        -0.04616187885403633,
        0.12314023822546005,
        -0.04144294559955597,
        0.1110871434211731,
        -0.009219152852892876,
        -0.16580237448215485,
        0.06680425256490707,
        0.15293757617473602,
        -0.1435227245092392,
        0.08216121792793274,
        0.03273070603609085,
        -0.08076079189777374,
        0.00024332274915650487,
        -0.0698351263999939,
        -0.08922691643238068,
        -0.09208444505929947,
        -0.0022942672949284315,
        0.13161279261112213,
        -0.005267817992717028,
        -0.12950283288955688,
        0.04210502281785011,
        -0.11329268664121628,
        0.09695933759212494,
        0.15975791215896606,
        0.06552277505397797,
        -0.006666332483291626,
        -0.08769359439611435,
        -0.04391892999410629
      ],
      [
        -0.16525627672672272,
        -0.09695795178413391,
        -0.07780525088310242,
        -0.06039310246706009,
        -0.14000052213668823,
        -0.08067123591899872,
        -0.09648075699806213,
        0.009758506901562214,
        -0.050814129412174225,
        -0.13668835163116455,
        -0.1416027992963791,
        0.025120249018073082,
        0.16019275784492493,
        -0.04912028834223747,
        -0.081078439950943,
        0.1105353906750679,
        -0.0015188271645456553,
        -0.012980537489056587,
        0.16960127651691437,
        -0.1063423678278923,
        0.06266823410987854,
        0.08460821956396103,
        0.06788381189107895,
        -0.02155512012541294,
        0.019006138667464256,
        -0.1262018233537674,
        -0.02342105470597744,
        -0.13651636242866516,
        -0.001505293883383274,
        0.10141216963529587,
        -0.02362045831978321,
        0.05447159335017204,
        0.0119026442989707,
        0.0500144325196743,
        -0.10099483281373978,
        0.030496962368488312,
        -0.12009221315383911,
        0.12941764295101166,
        -0.08049312978982925,
        0.012937753461301327,
        -0.01557860430330038,
        0.1132393628358841,
        -0.15273241698741913,
        0.10433484613895416,
        0.14082622528076172,
        -0.13807910680770874,
        -0.0023906975984573364,
        0.11996709555387497,
        0.06857644766569138,
        0.03666616231203079,
        0.12035498768091202,
        0.07587963342666626,
        0.1644962877035141,
        0.09423958510160446,
        0.03252333775162697,
        -0.003998038824647665,
        -0.10831864923238754,
        -0.08532072603702545,
        -0.12197485566139221,
        0.06377609819173813,
        -0.13187694549560547,
        0.16344645619392395,
        -0.044029105454683304,
        -0.11383473128080368,
        -0.11043621599674225,
        -0.0702446922659874,
        0.12266978621482849,
        -0.11603596061468124,
        -0.11850733309984207,
        -0.19808584451675415,
        -0.11051924526691437,
        0.08915858715772629,
        0.13765977323055267,
        0.03823430463671684,
        -0.07510687410831451,
        0.15096309781074524,
        -0.006566992029547691,
        -0.1726645827293396,
        0.07444223016500473,
        0.1552293747663498,
        -0.08761055767536163,
        -0.04826993867754936,
        -0.02576235868036747,
        -0.11425682157278061,
        0.11184787005186081,
        -0.05407792702317238,
        0.031436674296855927,
        0.026365123689174652,
        0.09144464880228043,
        -0.03251904249191284,
        -0.045373138040304184,
        0.037330351769924164,
        0.06036161631345749,
        0.06111850589513779,
        -0.11895368248224258,
        -0.006768503226339817,
        0.14718705415725708,
        -0.07545473426580429,
        0.03625756874680519,
        -0.016794724389910698,
        0.1190565973520279,
        -0.1504550725221634,
        0.04669736325740814,
        -0.04025283455848694,
        -0.0033136564306914806,
        0.1363467276096344,
        0.12047639489173889,
        -0.14835485816001892,
        -0.04174647852778435,
        -0.06584962457418442,
        -0.0944180116057396,
        -0.18861618638038635,
        0.0773753970861435,
        -0.11362573504447937,
        0.006500085350126028,
        -0.15075667202472687,
        0.04494357481598854,
        0.15278832614421844,
        -0.045655135065317154,
        -0.08121418207883835,
        -0.03774629160761833,
        -0.0705680400133133,
        -0.05456855520606041,
        0.031304970383644104,
        -0.07604236155748367,
        -0.045195043087005615,
        -0.11423864960670471,
        0.09804492443799973
      ],
      [
        0.06236151233315468,
        0.044738851487636566,
        -0.0020823199301958084,
        0.14689429104328156,
        0.18317583203315735,
        0.17695781588554382,
        -0.05456208810210228,
        0.11063186824321747,
        0.15417517721652985,
        -0.0855162963271141,
        -0.14282499253749847,
        -0.0999455377459526,
        -0.11759467422962189,
        -0.1931813806295395,
        -0.10253825783729553,
        -0.11208708584308624,
        0.1600443422794342,
        -0.05443420261144638,
        -0.06349197030067444,
        0.20333512127399445,
        0.060771644115448,
        -0.039092566817998886,
        -0.0345584936439991,
        0.15116290748119354,
        -0.14990544319152832,
        0.06122462451457977,
        0.0032730575185269117,
        0.07799285650253296,
        -0.05696791037917137,
        0.0884411633014679,
        0.12814578413963318,
        -0.16673864424228668,
        0.13986243307590485,
        -0.09282562881708145,
        0.04983310401439667,
        -0.0941362977027893,
        0.009072398766875267,
        -0.13325953483581543,
        -0.10735101252794266,
        -0.021130094304680824,
        0.07503597438335419,
        0.13828548789024353,
        -0.15971308946609497,
        0.15310411155223846,
        0.005264044273644686,
        0.18349508941173553,
        -0.0076365964487195015,
        0.03600490838289261,
        -0.12605558335781097,
        0.04582609236240387,
        0.007706806994974613,
        -0.06233266368508339,
        -0.08306719362735748,
        -0.07946483790874481,
        -0.024312257766723633,
        0.044889092445373535,
        0.15611876547336578,
        -0.10741010308265686,
        -0.04826869070529938,
        0.022510580718517303,
        0.17241278290748596,
        -0.02391667291522026,
        -0.006599161773920059,
        -0.07037879526615143,
        -0.06165676936507225,
        -0.049672745168209076,
        0.12462859600782394,
        0.01793602667748928,
        -0.05130048468708992,
        0.0015253933379426599,
        0.07918458431959152,
        -0.13063445687294006,
        0.07966474443674088,
        -0.055713653564453125,
        -0.0637916624546051,
        -0.00879184901714325,
        0.10066688060760498,
        -0.012385468930006027,
        0.10916142910718918,
        -0.024592971429228783,
        -0.09582281857728958,
        -0.04555543512105942,
        0.04846830293536186,
        0.1263425201177597,
        -0.08376873284578323,
        -0.08789362013339996,
        -0.07485365867614746,
        0.0740668848156929,
        0.0071677700616419315,
        -0.08419900387525558,
        0.0411178283393383,
        -0.15245689451694489,
        -0.016363272443413734,
        0.036110542714595795,
        0.02993728220462799,
        0.14465337991714478,
        -0.18978063762187958,
        0.1453106701374054,
        0.05047021433711052,
        -0.18096815049648285,
        0.003348250174894929,
        -0.11418135464191437,
        -0.11537966132164001,
        0.12181822210550308,
        0.053681179881095886,
        -0.18595369160175323,
        0.11321325600147247,
        0.029374314472079277,
        0.01757078245282173,
        -0.0368245393037796,
        0.11650984734296799,
        0.00833851657807827,
        0.14062467217445374,
        -0.002195254433900118,
        -0.13426978886127472,
        0.03966150060296059,
        -0.06649737060070038,
        0.08018004894256592,
        -0.12855102121829987,
        -0.042155470699071884,
        0.10879049450159073,
        0.014383804984390736,
        0.08896370232105255,
        0.02650105394423008,
        0.11757128685712814,
        -0.03450445830821991,
        0.000696586153935641,
        0.10675016790628433
      ],
      [
        0.020781448110938072,
        0.012127889320254326,
        0.09092286974191666,
        -0.16303172707557678,
        0.0710390955209732,
        0.0400359220802784,
        -0.044750459492206573,
        -0.0144687844440341,
        -0.11434177309274673,
        -0.026232507079839706,
        0.09385834634304047,
        -0.08832066506147385,
        0.017378434538841248,
        0.11998391151428223,
        -0.10345367342233658,
        -0.021532397717237473,
        0.10213126987218857,
        0.004213728476315737,
        0.14629529416561127,
        -0.12133779376745224,
        0.11556071788072586,
        -0.039247434586286545,
        -0.1671256422996521,
        -0.09953738003969193,
        -0.0153833432123065,
        -0.06244722381234169,
        -0.00012671670992858708,
        0.037589289247989655,
        0.0261117834597826,
        -0.15154823660850525,
        -0.05190160498023033,
        0.03696855902671814,
        0.06434658169746399,
        0.26824048161506653,
        -0.06123921647667885,
        -0.04486876726150513,
        -0.14778780937194824,
        -0.08846938610076904,
        -0.07350514829158783,
        -0.0964384600520134,
        0.06091580539941788,
        -0.069668248295784,
        -0.13549329340457916,
        -0.018671471625566483,
        0.12795525789260864,
        -0.03532801941037178,
        0.01528323907405138,
        -0.0822102278470993,
        0.06960037350654602,
        -0.045785121619701385,
        -0.0815972164273262,
        -0.10716648399829865,
        -0.06529345363378525,
        0.1381502002477646,
        0.03720678761601448,
        0.016475461423397064,
        -0.19251546263694763,
        0.10960373282432556,
        -0.20843684673309326,
        -0.02700514905154705,
        -0.02825174480676651,
        -0.02650517411530018,
        -0.0021501360461115837,
        -0.08944734930992126,
        0.160345658659935,
        -0.1550765484571457,
        0.09803905338048935,
        0.047787345945835114,
        -0.0348714217543602,
        0.0407995767891407,
        -0.015329250134527683,
        -0.05218777433037758,
        0.1889776885509491,
        0.1486252248287201,
        -0.12782727181911469,
        -0.07214876264333725,
        0.17115449905395508,
        0.06518174707889557,
        0.019869370386004448,
        -0.028107164427638054,
        -0.12925586104393005,
        0.08379295468330383,
        -0.011024897918105125,
        0.07628034800291061,
        0.16749732196331024,
        0.1522032469511032,
        -0.039762843400239944,
        0.16101694107055664,
        -0.06412725895643234,
        0.10739318281412125,
        0.02372337318956852,
        0.19455765187740326,
        -0.0379817932844162,
        0.10700006783008575,
        0.020086178556084633,
        -0.059907615184783936,
        -0.04513020068407059,
        0.13036079704761505,
        0.08588025718927383,
        0.061421945691108704,
        0.1327805370092392,
        0.01425526849925518,
        -0.02714184857904911,
        -0.1643320918083191,
        0.09034068882465363,
        0.19132477045059204,
        0.004456592258065939,
        0.11181797087192535,
        0.15731441974639893,
        -0.13909542560577393,
        -0.15102748572826385,
        0.0725945457816124,
        0.09238186478614807,
        0.17657390236854553,
        0.053753502666950226,
        -0.06028427928686142,
        -0.12097392231225967,
        -0.02983071655035019,
        0.03478468954563141,
        -0.16095516085624695,
        0.07354610413312912,
        -0.04531359300017357,
        0.12362225353717804,
        0.07876219600439072,
        -0.09940621256828308,
        -0.0030547890346497297,
        0.16255024075508118,
        -0.017990004271268845
      ],
      [
        -0.09635372459888458,
        0.00037135419552214444,
        -0.09949582815170288,
        -0.14594139158725739,
        0.1145942211151123,
        0.02591562643647194,
        0.12342599779367447,
        0.07894351333379745,
        0.1632990837097168,
        0.045830998569726944,
        0.11092173308134079,
        0.11736080050468445,
        -0.008197528310120106,
        0.11380323022603989,
        -0.013294625096023083,
        0.07550480216741562,
        0.01732863485813141,
        0.1340140700340271,
        -0.027371006086468697,
        0.23012365400791168,
        0.06609915941953659,
        0.09406429529190063,
        -0.07722438126802444,
        -0.10877005010843277,
        -0.16676346957683563,
        0.08237412571907043,
        -0.06764879822731018,
        -0.07237832993268967,
        0.04484516382217407,
        -0.12394363433122635,
        0.009720259346067905,
        -0.11796215921640396,
        0.10835987329483032,
        -0.11469198018312454,
        -0.13246048986911774,
        -0.018800942227244377,
        0.004897939506918192,
        0.1058354601264,
        -0.014507553540170193,
        -0.11198925971984863,
        -0.010078683495521545,
        -0.08048419654369354,
        0.023289144039154053,
        0.20315854251384735,
        -0.19951854646205902,
        0.036460015922784805,
        0.06041429936885834,
        -0.09488998353481293,
        -0.04742280766367912,
        -0.09610024094581604,
        -0.10037288814783096,
        -0.09298000484704971,
        -0.037917494773864746,
        0.16860659420490265,
        0.0465560257434845,
        0.08673230558633804,
        0.07367203384637833,
        -0.11204773187637329,
        0.01636667549610138,
        0.13086213171482086,
        0.15988591313362122,
        0.06523873656988144,
        0.11200426518917084,
        -0.14156721532344818,
        0.047732871025800705,
        0.02366676554083824,
        0.039330657571554184,
        0.06368936598300934,
        0.09931180626153946,
        0.06675848364830017,
        0.12696148455142975,
        -0.015565385110676289,
        -0.1271236687898636,
        0.11144935339689255,
        0.13083268702030182,
        0.1311401128768921,
        -0.0011321005877107382,
        0.03917156904935837,
        0.000784805859439075,
        -0.020335132256150246,
        0.054288074374198914,
        0.026947468519210815,
        0.08564291149377823,
        0.04531370848417282,
        0.08549867570400238,
        -0.011043071746826172,
        -0.005993110593408346,
        -0.003728100098669529,
        -0.12345273047685623,
        -0.13815875351428986,
        -0.00985878799110651,
        -0.18784268200397491,
        -0.16883470118045807,
        0.05329302325844765,
        0.06716635078191757,
        0.18031232059001923,
        0.06968531012535095,
        0.13485142588615417,
        -0.07538529485464096,
        0.012646223418414593,
        0.05440754070878029,
        -0.05512505769729614,
        -0.18509794771671295,
        0.1069415733218193,
        -0.005724446382373571,
        -0.08609624207019806,
        0.021914951503276825,
        0.1106068566441536,
        -0.05006733164191246,
        -0.09532177448272705,
        0.14470255374908447,
        0.009212179109454155,
        -0.0966406986117363,
        0.06505389511585236,
        -0.05656055361032486,
        0.01990242302417755,
        0.05222006514668465,
        -0.14947111904621124,
        0.033728502690792084,
        0.12429660558700562,
        -0.06167422980070114,
        0.13709823787212372,
        0.07285315543413162,
        0.01410015020519495,
        0.10450734943151474,
        0.0617758147418499,
        0.006563263013958931,
        0.1289500594139099
      ],
      [
        0.11773037165403366,
        -0.08782988041639328,
        -0.05960027128458023,
        -0.09278794378042221,
        0.1430966705083847,
        0.12654989957809448,
        -0.06706338375806808,
        -0.0013711312785744667,
        -0.042088620364665985,
        0.12805058062076569,
        -0.0001831521512940526,
        0.03234018012881279,
        -0.1311325877904892,
        0.08011022955179214,
        -0.016223054379224777,
        -0.13289576768875122,
        -0.008002175018191338,
        -0.057593829929828644,
        0.1025879979133606,
        -0.07167667895555496,
        0.07287228107452393,
        -0.04338837042450905,
        -0.11772970855236053,
        0.03130113333463669,
        -0.09381961822509766,
        -0.07200732082128525,
        -0.14080780744552612,
        0.018935054540634155,
        0.14271974563598633,
        -0.046106044203042984,
        0.15105785429477692,
        0.010547282174229622,
        -0.10863696783781052,
        -0.24695679545402527,
        -0.08781401067972183,
        0.0479009747505188,
        -0.14504481852054596,
        0.11709635704755783,
        -0.15950384736061096,
        0.02746940404176712,
        0.07252956926822662,
        -0.1050722524523735,
        0.1040014997124672,
        0.07253320515155792,
        -0.1935432255268097,
        0.08036905527114868,
        0.027341866865754128,
        -0.07042749971151352,
        -0.035704974085092545,
        -0.04716867581009865,
        -0.03134133294224739,
        0.08800259977579117,
        -0.0761072039604187,
        0.04364756867289543,
        0.05139559134840965,
        0.0009959364542737603,
        -0.06350093334913254,
        0.13009241223335266,
        0.007926525548100471,
        -0.12760436534881592,
        0.03180329501628876,
        -0.08514168858528137,
        -0.09697363525629044,
        0.14771604537963867,
        -0.1761186718940735,
        -0.03796027600765228,
        0.17229358851909637,
        -0.013129308819770813,
        -0.02706804685294628,
        -0.035881202667951584,
        -0.01509872917085886,
        0.06863237917423248,
        -0.17682725191116333,
        -0.07141431421041489,
        -0.07442827522754669,
        0.1096559688448906,
        0.07614190131425858,
        0.19168075919151306,
        -0.10732053965330124,
        0.01002709474414587,
        -0.08218954503536224,
        0.09729049354791641,
        0.01664016582071781,
        -0.1092354953289032,
        -0.12437286972999573,
        -0.0743245929479599,
        -0.052635349333286285,
        -0.06893665343523026,
        -0.1071455329656601,
        0.02931901626288891,
        -0.1488640010356903,
        -0.1223209947347641,
        0.041257720440626144,
        -0.04534951224923134,
        0.018677661195397377,
        -0.008397441357374191,
        0.029470650479197502,
        0.10802465677261353,
        0.03168860450387001,
        -0.17200987040996552,
        -0.10583321750164032,
        -0.00830706488341093,
        -0.025163136422634125,
        0.24111305177211761,
        -0.0848076120018959,
        -0.007835710421204567,
        -0.023946797475218773,
        -0.09978211671113968,
        -0.10673535615205765,
        0.14906300604343414,
        0.04887915402650833,
        0.03356488421559334,
        -0.1044974997639656,
        -0.05197806656360626,
        -0.1558186411857605,
        0.1676100641489029,
        0.02773638814687729,
        0.04916121065616608,
        0.12708060443401337,
        0.15637287497520447,
        -0.1156429797410965,
        -0.006615620572119951,
        -0.03487284854054451,
        -0.07354401797056198,
        -0.10360327363014221,
        0.12381729483604431,
        0.12029461562633514,
        0.14918141067028046
      ],
      [
        0.03613276779651642,
        0.11335169523954391,
        -0.03956432268023491,
        0.1428855061531067,
        0.09351132065057755,
        0.12161591649055481,
        -0.1261739730834961,
        -0.03474745526909828,
        -0.016771769151091576,
        -0.006397299934178591,
        -0.09949103742837906,
        -0.11297225952148438,
        0.11363891512155533,
        -0.14165082573890686,
        0.03689930588006973,
        0.008050626143813133,
        0.025679675862193108,
        0.11984329670667648,
        -0.11845611780881882,
        -0.08532717078924179,
        -0.07388695329427719,
        0.002940202597528696,
        -0.11334902793169022,
        -0.1332317292690277,
        -0.060064636170864105,
        0.09479014575481415,
        0.11956625431776047,
        -0.12129933387041092,
        0.009816198609769344,
        -0.14313630759716034,
        0.08160369843244553,
        -0.015207360498607159,
        -0.06500370055437088,
        -0.06731673330068588,
        -0.06400555372238159,
        -0.11080443859100342,
        0.13104631006717682,
        -0.14890477061271667,
        0.05438857525587082,
        -0.11464893817901611,
        0.055142443627119064,
        -0.04601142182946205,
        -0.15550322830677032,
        0.08241013437509537,
        -0.15452249348163605,
        -0.006292393431067467,
        0.02286617085337639,
        0.16505685448646545,
        -0.13372622430324554,
        -0.1518487185239792,
        -0.1143491119146347,
        0.09392817318439484,
        -0.10553949326276779,
        -0.09792006760835648,
        0.038230910897254944,
        -0.05946552753448486,
        0.025809450075030327,
        -0.055535200983285904,
        0.0018774999771267176,
        -0.05861326679587364,
        -0.11708567291498184,
        0.0987510159611702,
        -0.10531178116798401,
        0.09043735265731812,
        -0.11200781911611557,
        -0.0441710464656353,
        -0.028996268287301064,
        0.10232394188642502,
        0.109751857817173,
        0.17066995799541473,
        -0.07455426454544067,
        -0.08628286421298981,
        0.013586895540356636,
        -0.016475720331072807,
        0.1300126314163208,
        -0.13200728595256805,
        -0.13168315589427948,
        0.05541200935840607,
        -0.08152049779891968,
        -0.14850711822509766,
        0.14047032594680786,
        -0.053051017224788666,
        0.14198224246501923,
        -0.09538399428129196,
        -0.13169316947460175,
        -0.0023046203423291445,
        0.05115242674946785,
        0.057628702372312546,
        0.14346323907375336,
        0.07593970000743866,
        -0.01680014468729496,
        -0.12392334640026093,
        -0.05559408664703369,
        -0.10984954237937927,
        -0.01559167355298996,
        0.07259075343608856,
        -0.010795128531754017,
        -0.032002042979002,
        -0.013139106333255768,
        -0.10905609279870987,
        -0.10775335878133774,
        0.14681275188922882,
        -0.001826354069635272,
        0.05994464084506035,
        -0.05209781974554062,
        -0.047443877905607224,
        -0.07424977421760559,
        -0.11151806265115738,
        0.03901640698313713,
        0.07101906836032867,
        0.11321958899497986,
        0.028629636391997337,
        -0.12843261659145355,
        0.08214801549911499,
        -0.15637649595737457,
        -0.01597762666642666,
        -0.14153049886226654,
        -0.031320374459028244,
        -0.04727078974246979,
        0.02578304149210453,
        0.03839299455285072,
        0.021723665297031403,
        -0.013336249627172947,
        -0.09822991490364075,
        0.033730003982782364,
        0.11878439784049988,
        -0.05399426445364952,
        0.1263502836227417
      ],
      [
        -0.1523303985595703,
        0.14463596045970917,
        -0.05506544187664986,
        0.16534771025180817,
        -0.14356565475463867,
        -0.20518054068088531,
        -0.14586828649044037,
        -0.04199825972318649,
        -0.1749136596918106,
        0.001353023573756218,
        0.02569635771214962,
        -0.06220882758498192,
        0.050174884498119354,
        0.15746639668941498,
        0.018657589331269264,
        0.0014345464296638966,
        -0.14350448548793793,
        0.06690894812345505,
        0.2008884847164154,
        -0.19197826087474823,
        -0.13390934467315674,
        0.03057723119854927,
        -0.16192351281642914,
        -0.0875517725944519,
        0.18186308443546295,
        -0.030707186087965965,
        -0.004330163821578026,
        0.12705163657665253,
        -0.1591399610042572,
        0.010774143971502781,
        -0.07683225721120834,
        0.1166839599609375,
        -0.11112945526838303,
        0.031836505979299545,
        0.15319228172302246,
        0.12103943526744843,
        0.09535808116197586,
        -0.094203419983387,
        -0.07916436344385147,
        -0.05787060409784317,
        0.1419595330953598,
        -0.009237580932676792,
        -0.004007610958069563,
        0.006371676456183195,
        0.01338717620819807,
        0.020290732383728027,
        0.12243723124265671,
        -0.17066118121147156,
        -0.06511794030666351,
        -0.022824594751000404,
        0.03328578174114227,
        0.121924489736557,
        -0.06286156922578812,
        -0.10523776710033417,
        -0.1554446816444397,
        0.1265569031238556,
        -0.24297545850276947,
        0.07374830543994904,
        -0.12653596699237823,
        -0.07059913873672485,
        -0.22089456021785736,
        0.08825427293777466,
        -0.06325371563434601,
        -0.14551852643489838,
        -0.02870684675872326,
        0.04125719517469406,
        -0.16297301650047302,
        -0.17842499911785126,
        0.17813226580619812,
        -0.19204497337341309,
        -0.09653978049755096,
        0.027601895853877068,
        0.1189059168100357,
        -0.16732200980186462,
        -0.018210506066679955,
        0.10496887564659119,
        -0.03450493887066841,
        0.028040939942002296,
        0.041641656309366226,
        0.16409285366535187,
        0.08826309442520142,
        0.04376043379306793,
        0.06425490975379944,
        -0.0779327005147934,
        -0.04728415608406067,
        0.07552435994148254,
        -0.0509762205183506,
        0.014675191603600979,
        0.07551145553588867,
        0.03533485159277916,
        0.13323575258255005,
        0.12635233998298645,
        -0.1011510118842125,
        -0.041186679154634476,
        -0.1444000005722046,
        -0.1501522809267044,
        0.026667876169085503,
        -0.09504591673612595,
        0.11142677068710327,
        0.15299957990646362,
        -0.1571023315191269,
        -0.03461868688464165,
        0.18575118482112885,
        -0.037376243621110916,
        0.05405692383646965,
        0.03944123908877373,
        0.10428378731012344,
        -0.0419626422226429,
        0.20619046688079834,
        0.10459810495376587,
        -0.062459174543619156,
        -0.12326452136039734,
        0.025987086817622185,
        -0.02901553362607956,
        0.017428290098905563,
        0.013845104724168777,
        0.03831677883863449,
        -0.037810828536748886,
        0.17241854965686798,
        -0.058025866746902466,
        0.02332170680165291,
        -0.0682152658700943,
        -0.1129189282655716,
        -0.10107152163982391,
        0.011314508505165577,
        -0.1149744912981987,
        0.0500776469707489,
        -0.11599238216876984
      ],
      [
        0.17510253190994263,
        -0.06870079785585403,
        -0.14946910738945007,
        -0.017432739958167076,
        0.1481965035200119,
        0.19942045211791992,
        0.06712046265602112,
        -0.024782152846455574,
        0.17989800870418549,
        0.07143647968769073,
        -0.09742587804794312,
        0.0480131134390831,
        -0.21563158929347992,
        -0.03248876333236694,
        0.05059336870908737,
        -0.1491089016199112,
        0.14956647157669067,
        0.15676382184028625,
        -0.038598377257585526,
        -0.041893891990184784,
        -0.11016763001680374,
        -0.029230918735265732,
        -0.08371497690677643,
        0.04048621654510498,
        -0.01269217673689127,
        -0.13786236941814423,
        -0.13967938721179962,
        0.03216278925538063,
        -0.06608694046735764,
        0.02179514244198799,
        0.16090917587280273,
        -0.18307791650295258,
        -0.07302975654602051,
        -0.0674515888094902,
        -0.029798723757267,
        -0.08896370232105255,
        -0.10285118967294693,
        -0.036990195512771606,
        -0.03497040271759033,
        -0.19260066747665405,
        -0.09678837656974792,
        0.1539207398891449,
        -0.052275143563747406,
        0.07496342808008194,
        -0.1673695147037506,
        0.02712063677608967,
        0.0429876446723938,
        -0.08552351593971252,
        0.05409645661711693,
        0.023952754214406013,
        -0.07751797884702682,
        0.08054845780134201,
        -0.16502824425697327,
        0.0023255115374922752,
        -0.07341153174638748,
        0.03273063898086548,
        0.046688344329595566,
        0.0014101280830800533,
        -0.011235409416258335,
        0.12463832646608353,
        0.004051696043461561,
        -0.06064492464065552,
        0.013198445551097393,
        -0.0014000391820445657,
        -0.029522605240345,
        0.16949518024921417,
        0.15722551941871643,
        0.1512625813484192,
        -0.0358109213411808,
        -0.0010708523914217949,
        -0.02082303911447525,
        0.14990834891796112,
        0.032924629747867584,
        -0.04151856526732445,
        -0.0810399204492569,
        0.08854498714208603,
        0.07755281776189804,
        0.18842053413391113,
        -0.0188527200371027,
        0.10063610225915909,
        0.1601809561252594,
        0.0681879073381424,
        0.1537458449602127,
        -0.11903776973485947,
        0.07933041453361511,
        0.11346504092216492,
        0.007802258711308241,
        0.0678894966840744,
        0.008390692993998528,
        -0.12458658218383789,
        0.04239759221673012,
        -0.05736444517970085,
        0.10868460685014725,
        -0.08983176946640015,
        0.07726475596427917,
        -0.06481306254863739,
        -0.2103271484375,
        0.10837064683437347,
        0.16239695250988007,
        0.08516377210617065,
        -0.001140414271503687,
        0.005331874825060368,
        -0.05558275431394577,
        -0.010980985127389431,
        0.10787379741668701,
        -0.16031278669834137,
        -0.037750668823719025,
        -0.016210652887821198,
        -0.20484282076358795,
        0.11469510942697525,
        0.12152332812547684,
        0.09751773625612259,
        0.06100427731871605,
        0.09848593175411224,
        0.0013204022543504834,
        0.07294747978448868,
        0.11846978962421417,
        0.08266201615333557,
        -0.02170274220407009,
        0.170854851603508,
        -0.08533694595098495,
        -0.12649206817150116,
        0.09558642655611038,
        -0.05543037876486778,
        -0.07852108776569366,
        0.15124619007110596,
        -0.09624820202589035,
        0.07135500013828278
      ],
      [
        0.07461819797754288,
        -0.06422217190265656,
        -0.08919559419155121,
        -0.09489484876394272,
        -0.017859462648630142,
        0.046816855669021606,
        0.06441553682088852,
        -0.05044259876012802,
        -0.1531308889389038,
        -0.13237780332565308,
        -0.03711755946278572,
        -0.0016667402815073729,
        0.012960965745151043,
        0.1080443263053894,
        -0.09542004019021988,
        0.1549501270055771,
        -0.14042654633522034,
        -0.01835796795785427,
        0.12292267382144928,
        0.008562437258660793,
        -0.19424258172512054,
        -0.07776624709367752,
        0.10020145028829575,
        -0.05780639126896858,
        0.09976577013731003,
        0.0950755923986435,
        0.14421863853931427,
        -0.1030835285782814,
        -0.08106433600187302,
        -0.11284629255533218,
        -0.1437516212463379,
        0.13836270570755005,
        0.1120171844959259,
        0.1208680272102356,
        -0.009930618107318878,
        -0.048871248960494995,
        -0.030528131872415543,
        0.05754321068525314,
        0.09713222831487656,
        0.08846703916788101,
        0.07340984791517258,
        0.06523677706718445,
        0.05158253014087677,
        -0.07477382570505142,
        0.10586943477392197,
        -0.10509222745895386,
        0.03928745910525322,
        -0.1571829468011856,
        -0.144625723361969,
        -0.01321131270378828,
        -0.13564777374267578,
        0.000784941716119647,
        0.21036557853221893,
        0.05904027447104454,
        -0.006877268198877573,
        -0.04961581900715828,
        -0.13484536111354828,
        0.008734200149774551,
        -0.164708212018013,
        -0.023855149745941162,
        -0.17443883419036865,
        0.1175886020064354,
        -0.004877717699855566,
        -0.06631798297166824,
        0.0679328441619873,
        -0.09288211911916733,
        -0.16741478443145752,
        -0.03864649310708046,
        -0.10964519530534744,
        -0.13872554898262024,
        0.04713078588247299,
        -0.12857204675674438,
        0.1135324239730835,
        0.14349521696567535,
        0.018183110281825066,
        -0.0934988409280777,
        0.002826757961884141,
        -0.10293671488761902,
        -0.02805260382592678,
        -0.10161246359348297,
        -0.06861294060945511,
        0.09222038835287094,
        -0.13976722955703735,
        -0.1446477472782135,
        0.13621261715888977,
        -0.03249870613217354,
        -0.050979748368263245,
        0.011905726045370102,
        0.08925705403089523,
        0.10117145627737045,
        -0.0006051741074770689,
        0.03769531846046448,
        0.1135060265660286,
        0.1576189547777176,
        -0.0930924043059349,
        0.01058106403797865,
        0.029979009181261063,
        0.10177253931760788,
        0.07257134467363358,
        -0.07186826318502426,
        -0.05870195850729942,
        0.039741143584251404,
        -0.06855189800262451,
        -0.26189035177230835,
        -0.01252483855932951,
        -0.028521999716758728,
        0.02583356387913227,
        -0.15752778947353363,
